<?xml version="1.0"?>
<opencv_storage>
<cascade>
  <stageType>BOOST</stageType>
  <featureType>HAAR</featureType>
  <height>46</height>
  <width>38</width>
  <stageParams>
    <boostType>GAB</boostType>
    <minHitRate>9.9500000476837158e-01</minHitRate>
    <maxFalseAlarm>5.0000000000000000e-01</maxFalseAlarm>
    <weightTrimRate>9.4999998807907104e-01</weightTrimRate>
    <maxDepth>1</maxDepth>
    <maxWeakCount>100</maxWeakCount></stageParams>
  <featureParams>
    <maxCatCount>0</maxCatCount>
    <featSize>1</featSize>
    <mode>BASIC</mode></featureParams>
  <stageNum>2</stageNum>
  <stages>
    <!-- stage 0 -->
    <_>
      <maxWeakCount>3</maxWeakCount>
      <stageThreshold>-9.3844437599182129e-01</stageThreshold>
      <weakClassifiers>
        <_>
          <internalNodes>
            0 -1 2 -3.1893714331090450e-03</internalNodes>
          <leafValues>
            8.5542166233062744e-01 -9.7979795932769775e-01</leafValues></_>
        <_>
          <internalNodes>
            0 -1 0 -7.0336442440748215e-03</internalNodes>
          <leafValues>
            -9.1736984252929688e-01 8.2156246900558472e-01</leafValues></_>
        <_>
          <internalNodes>
            0 -1 3 -1.6452137380838394e-02</internalNodes>
          <leafValues>
            9.7279912233352661e-01 -7.8020888566970825e-01</leafValues></_></weakClassifiers></_>
    <!-- stage 1 -->
    <_>
      <maxWeakCount>2</maxWeakCount>
      <stageThreshold>5.5046752095222473e-02</stageThreshold>
      <weakClassifiers>
        <_>
          <internalNodes>
            0 -1 1 -8.0036540748551488e-04</internalNodes>
          <leafValues>
            1. -9.4174754619598389e-01</leafValues></_>
        <_>
          <internalNodes>
            0 -1 4 -2.4530812879675068e-05</internalNodes>
          <leafValues>
            1. -9.4495326280593872e-01</leafValues></_></weakClassifiers></_></stages>
  <features>
    <_>
      <rects>
        <_>
          2 31 36 3 -1.</_>
        <_>
          14 31 12 3 3.</_></rects>
      <tilted>0</tilted></_>
    <_>
      <rects>
        <_>
          19 2 12 4 -1.</_>
        <_>
          19 4 12 2 2.</_></rects>
      <tilted>0</tilted></_>
    <_>
      <rects>
        <_>
          20 27 18 10 -1.</_>
        <_>
          29 27 9 10 2.</_></rects>
      <tilted>0</tilted></_>
    <_>
      <rects>
        <_>
          20 35 18 4 -1.</_>
        <_>
          29 35 9 4 2.</_></rects>
      <tilted>0</tilted></_>
    <_>
      <rects>
        <_>
          30 37 8 1 -1.</_>
        <_>
          34 37 4 1 2.</_></rects>
      <tilted>0</tilted></_></features></cascade>
</opencv_storage>
